digraph Tree {
node [shape=box, style="rounded", color="black", fontname=helvetica] ;
edge [fontname=helvetica] ;
0 [label="Values <= 22.0\nmse = 713769113.9\nsamples = 19\nvalue = 34681.8"] ;
1 [label="Values <= 12.0\nmse = 136463835.3\nsamples = 13\nvalue = 12695.9"] ;
0 -> 1 [labeldistance=2.5, labelangle=45, headlabel="True"] ;
2 [label="Values <= 6.5\nmse = 12008101.8\nsamples = 9\nvalue = 3756.3"] ;
1 -> 2 ;
3 [label="mse = 135479.0\nsamples = 5\nvalue = 724.2"] ;
2 -> 3 ;
4 [label="mse = 5493463.8\nsamples = 4\nvalue = 6788.4"] ;
2 -> 4 ;
5 [label="Values <= 16.0\nmse = 36997688.2\nsamples = 4\nvalue = 25466.7"] ;
1 -> 5 ;
6 [label="mse = 1982704.2\nsamples = 2\nvalue = 18669.3"] ;
5 -> 6 ;
7 [label="mse = 2615667.2\nsamples = 2\nvalue = 30564.8"] ;
5 -> 7 ;
8 [label="Values <= 26.5\nmse = 9979918.2\nsamples = 6\nvalue = 63432.7"] ;
0 -> 8 [labeldistance=2.5, labelangle=-45, headlabel="False"] ;
9 [label="mse = 0.0\nsamples = 1\nvalue = 56249.0"] ;
8 -> 9 ;
10 [label="Values <= 31.0\nmse = 705677.6\nsamples = 5\nvalue = 64738.8"] ;
8 -> 10 ;
11 [label="mse = 0.0\nsamples = 1\nvalue = 62442.0"] ;
10 -> 11 ;
12 [label="mse = 195954.2\nsamples = 4\nvalue = 64968.5"] ;
10 -> 12 ;
}